<?xml version="1.0"?>
<opencv_storage>
<cascade>
  <stageType>BOOST</stageType>
  <featureType>LBP</featureType>
  <height>30</height>
  <width>80</width>
  <stageParams>
    <boostType>GAB</boostType>
    <minHitRate>9.9500000476837158e-01</minHitRate>
    <maxFalseAlarm>5.0000000000000000e-01</maxFalseAlarm>
    <weightTrimRate>9.4999999999999996e-01</weightTrimRate>
    <maxDepth>1</maxDepth>
    <maxWeakCount>100</maxWeakCount></stageParams>
  <featureParams>
    <maxCatCount>256</maxCatCount>
    <featSize>1</featSize></featureParams>
  <stageNum>20</stageNum>
  <stages>
    <!-- stage 0 -->
    <_>
      <maxWeakCount>2</maxWeakCount>
      <stageThreshold>-1.8669378757476807e-01</stageThreshold>
      <weakClassifiers>
        <_>
          <internalNodes>
            0 -1 8 -784017410 -50326634 -1862250210 -81734314
            -2000568129 -6782967 -133436481 -4529461</internalNodes>
          <leafValues>
            -9.4540232419967651e-01 8.4663343429565430e-01</leafValues></_>
        <_>
          <internalNodes>
            0 -1 7 -178982418 -242143147 1090525598 -1623388080
            -668955717 -73822071 -1416898053 -71570772</internalNodes>
          <leafValues>
            -8.6778879165649414e-01 7.5870853662490845e-01</leafValues></_></weakClassifiers></_>
    <!-- stage 1 -->
    <_>
      <maxWeakCount>2</maxWeakCount>
      <stageThreshold>-9.3150258064270020e-02</stageThreshold>
      <weakClassifiers>
        <_>
          <internalNodes>
            0 -1 43 -235604228 -170540593 1628497078 -242503573
            1103138761 -924745341 -408901474 -68290881</internalNodes>
          <leafValues>
            -8.7028658390045166e-01 7.8008550405502319e-01</leafValues></_>
        <_>
          <internalNodes>
            0 -1 10 -354423825 -870030921 -1052650857 -427514249
            11790227 1141145999 -368862385 -457442305</internalNodes>
          <leafValues>
            -7.5605255365371704e-01 7.7713632583618164e-01</leafValues></_></weakClassifiers></_>
    <!-- stage 2 -->
    <_>
      <maxWeakCount>2</maxWeakCount>
      <stageThreshold>-1.8142877146601677e-02</stageThreshold>
      <weakClassifiers>
        <_>
          <internalNodes>
            0 -1 59 -100663524 -1215057635 319733944 -214961443
            -125784408 -1105671999 -878146835 -4214375</internalNodes>
          <leafValues>
            -7.7117383480072021e-01 7.4923169612884521e-01</leafValues></_>
        <_>
          <internalNodes>
            0 -1 16 -294649889 553447167 -1107362065 -285282305
            -16777217 1711079423 -285220867 -293601281</internalNodes>
          <leafValues>
            -7.2241371870040894e-01 7.5303095579147339e-01</leafValues></_></weakClassifiers></_>
    <!-- stage 3 -->
    <_>
      <maxWeakCount>2</maxWeakCount>
      <stageThreshold>-3.6732084117829800e-03</stageThreshold>
      <weakClassifiers>
        <_>
          <internalNodes>
            0 -1 5 1912057126 -707718910 25400719 -42355321 -1580490326
            -87388743 -1065301334 -70346622</internalNodes>
          <leafValues>
            -7.8637772798538208e-01 7.3035067319869995e-01</leafValues></_>
        <_>
          <internalNodes>
            0 -1 28 119743263 2013210487 796880767 -13142187 671049587
            -1073776834 467654079 -1086583527</internalNodes>
          <leafValues>
            -6.9252699613571167e-01 7.8270447254180908e-01</leafValues></_></weakClassifiers></_>
    <!-- stage 4 -->
    <_>
      <maxWeakCount>2</maxWeakCount>
      <stageThreshold>-5.3890932351350784e-02</stageThreshold>
      <weakClassifiers>
        <_>
          <internalNodes>
            0 -1 49 -41475 -1649246209 -513 406372282 -17231111
            -1078460161 -1078452552 -2001204208</internalNodes>
          <leafValues>
            -6.6894662380218506e-01 7.5780749320983887e-01</leafValues></_>
        <_>
          <internalNodes>
            0 -1 31 -787441155 -639924483 51646717 -339083 -368523013
            -1740143991 784862463 733610264</internalNodes>
          <leafValues>
            -8.0368697643280029e-01 6.1505573987960815e-01</leafValues></_></weakClassifiers></_>
    <!-- stage 5 -->
    <_>
      <maxWeakCount>2</maxWeakCount>
      <stageThreshold>-9.0066090226173401e-02</stageThreshold>
      <weakClassifiers>
        <_>
          <internalNodes>
            0 -1 15 -268435473 -487671809 2147414014 -427098113 -659457
            28704767 -6816001 -876937345</internalNodes>
          <leafValues>
            -6.1928933858871460e-01 7.8571426868438721e-01</leafValues></_>
        <_>
          <internalNodes>
            0 -1 9 1293156780 -1626521339 -1794989682 -78274209
            -1593636701 -1449098832 -922035509 -1078228773</internalNodes>
          <leafValues>
            -8.7578040361404419e-01 5.8846539258956909e-01</leafValues></_></weakClassifiers></_>
    <!-- stage 6 -->
    <_>
      <maxWeakCount>4</maxWeakCount>
      <stageThreshold>-1.2101897001266479e+00</stageThreshold>
      <weakClassifiers>
        <_>
          <internalNodes>
            0 -1 3 -13089564 -193409 -1343561729 -4259841 -69889
            -43159755 -1347783171 -1893200828</internalNodes>
          <leafValues>
            -5.8344113826751709e-01 7.5376558303833008e-01</leafValues></_>
        <_>
          <internalNodes>
            0 -1 37 190644489 -671138863 1610596351 -1100577 259897343
            -1073766401 -1883242497 -1346433975</internalNodes>
          <leafValues>
            -6.2026369571685791e-01 7.0572125911712646e-01</leafValues></_>
        <_>
          <internalNodes>
            0 -1 39 840113521 -604569571 268973567 1597968855 687937785
            -1187346223 154312954 455023547</internalNodes>
          <leafValues>
            -7.2231346368789673e-01 6.1117470264434814e-01</leafValues></_>
        <_>
          <internalNodes>
            0 -1 21 635510269 487396531 1673993727 525797533 973129919
            -1223800639 -1164267633 -1417146694</internalNodes>
          <leafValues>
            -6.2137800455093384e-01 6.9346815347671509e-01</leafValues></_></weakClassifiers></_>
    <!-- stage 7 -->
    <_>
      <maxWeakCount>4</maxWeakCount>
      <stageThreshold>-2.0823453366756439e-01</stageThreshold>
      <weakClassifiers>
        <_>
          <internalNodes>
            0 -1 6 -176229090 -598044514 -754560686 -342699757
            -1621688126 -331055083 -728268349 -155229</internalNodes>
          <leafValues>
            -7.5816994905471802e-01 6.8957346677780151e-01</leafValues></_>
        <_>
          <internalNodes>
            0 -1 36 -1124542753 -66035715 -67174401 957218429 -16978186
            -65537 -608239625 -1103560708</internalNodes>
          <leafValues>
            -5.9451818466186523e-01 7.1965026855468750e-01</leafValues></_>
        <_>
          <internalNodes>
            0 -1 29 184745987 1932607563 -1524518433 2106787925
            1887503107 2075132194 -905762805 -1087765969</internalNodes>
          <leafValues>
            -8.0065137147903442e-01 5.3678882122039795e-01</leafValues></_>
        <_>
          <internalNodes>
            0 -1 46 -243533049 1362083911 1074348383 -619724705
            -368476146 -895450616 -527983927 -2084320149</internalNodes>
          <leafValues>
            -6.8849211931228638e-01 6.0766476392745972e-01</leafValues></_></weakClassifiers></_>
    <!-- stage 8 -->
    <_>
      <maxWeakCount>5</maxWeakCount>
      <stageThreshold>-5.7943415641784668e-01</stageThreshold>
      <weakClassifiers>
        <_>
          <internalNodes>
            0 -1 62 1048526609 1061109631 -1073741827 -129 1073725240
            1048543103 2130656844 683358778</internalNodes>
          <leafValues>
            -6.2996941804885864e-01 6.7557716369628906e-01</leafValues></_>
        <_>
          <internalNodes>
            0 -1 56 -682273283 -670002806 -1795024993 -591790070
            -6743671 -1634057016 -97642070 -122871632</internalNodes>
          <leafValues>
            -6.1328995227813721e-01 6.4289635419845581e-01</leafValues></_>
        <_>
          <internalNodes>
            0 -1 0 -184549553 -134742017 -268435458 -67895569 -436469889
            -1057554561 -150994957 -1057947657</internalNodes>
          <leafValues>
            -5.7910764217376709e-01 6.9133442640304565e-01</leafValues></_>
        <_>
          <internalNodes>
            0 -1 45 -110109697 -1071670201 1782582406 10733583
            1761804729 919152168 2042167322 1875897983</internalNodes>
          <leafValues>
            -6.4983379840850830e-01 6.4117664098739624e-01</leafValues></_>
        <_>
          <internalNodes>
            0 -1 67 823154169 -1857974224 -268152353 -572700469
            -1962927686 -1416054760 17438910 -1140324100</internalNodes>
          <leafValues>
            -6.3386166095733643e-01 6.3461917638778687e-01</leafValues></_></weakClassifiers></_>
    <!-- stage 9 -->
    <_>
      <maxWeakCount>4</maxWeakCount>
      <stageThreshold>-2.0555862784385681e-01</stageThreshold>
      <weakClassifiers>
        <_>
          <internalNodes>
            0 -1 53 -684196102 -196612 -16924674 -88281090 -537002564
            -537068036 -121765892 -1</internalNodes>
          <leafValues>
            -6.2000000476837158e-01 7.0875000953674316e-01</leafValues></_>
        <_>
          <internalNodes>
            0 -1 30 1544029693 -589802337 -1794993921 -36433763
            -1446446853 -71786341 -401414145 -1086840792</internalNodes>
          <leafValues>
            -5.7673007249832153e-01 6.6784262657165527e-01</leafValues></_>
        <_>
          <internalNodes>
            0 -1 23 -454072809 -1999452955 -216963311 -1004755179
            -1893084797 -81035237 -445181647 -391645261</internalNodes>
          <leafValues>
            -6.6455549001693726e-01 5.9902065992355347e-01</leafValues></_>
        <_>
          <internalNodes>
            0 -1 47 1979244516 1356511735 -1858784346 -259179181
            340928859 1350600850 6224811 1665661659</internalNodes>
          <leafValues>
            -8.5242193937301636e-01 4.5790141820907593e-01</leafValues></_></weakClassifiers></_>
    <!-- stage 10 -->
    <_>
      <maxWeakCount>4</maxWeakCount>
      <stageThreshold>-1.8382602930068970e-01</stageThreshold>
      <weakClassifiers>
        <_>
          <internalNodes>
            0 -1 27 -616762964 -6487481 -2022504440 -610580442
            -916078134 -893384701 -665900914 -2284886</internalNodes>
          <leafValues>
            -7.4733096361160278e-01 6.4441889524459839e-01</leafValues></_>
        <_>
          <internalNodes>
            0 -1 71 -9437377 -143458561 -11010444 -260833409 -10748143
            -243796105 -42470283 -235408777</internalNodes>
          <leafValues>
            -5.3462672233581543e-01 7.2161185741424561e-01</leafValues></_>
        <_>
          <internalNodes>
            0 -1 54 -796722945 -1161658113 -1609690785 9707935
            -1979014949 -134143839 -1974728135 -1475780547</internalNodes>
          <leafValues>
            -6.5600097179412842e-01 6.1529964208602905e-01</leafValues></_>
        <_>
          <internalNodes>
            0 -1 51 1364204704 -703327972 -1760263158 -1080623063
            34220985 -1152775551 -1968662338 -1078025827</internalNodes>
          <leafValues>
            -7.9705864191055298e-01 4.9789407849311829e-01</leafValues></_></weakClassifiers></_>
    <!-- stage 11 -->
    <_>
      <maxWeakCount>5</maxWeakCount>
      <stageThreshold>-6.7092734575271606e-01</stageThreshold>
      <weakClassifiers>
        <_>
          <internalNodes>
            0 -1 2 -285212689 -285217026 -286326801 -268439553
            -285212674 -1 -822083586 -51380225</internalNodes>
          <leafValues>
            -5.3145915269851685e-01 7.0637476444244385e-01</leafValues></_>
        <_>
          <internalNodes>
            0 -1 33 655425811 700389661 -1056862241 2069697793 931427259
            -125075288 553684986 -4388715</internalNodes>
          <leafValues>
            -6.5740931034088135e-01 6.1564612388610840e-01</leafValues></_>
        <_>
          <internalNodes>
            0 -1 26 689899771 -1123614697 478187743 -49579761 -501687881
            -38188802 -1979668310 -1440085841</internalNodes>
          <leafValues>
            -6.2764137983322144e-01 6.4919602870941162e-01</leafValues></_>
        <_>
          <internalNodes>
            0 -1 35 -606603298 -799720419 -237677568 -1849036663
            -1778195202 -1065207544 -1286882742 870300363</internalNodes>
          <leafValues>
            -6.5428239107131958e-01 5.8559590578079224e-01</leafValues></_>
        <_>
          <internalNodes>
            0 -1 66 -866124030 -1034893205 104923665 1101376223
            -2129426385 -90406664 -2138471921 -349438422</internalNodes>
          <leafValues>
            -6.9655525684356689e-01 5.6203097105026245e-01</leafValues></_></weakClassifiers></_>
    <!-- stage 12 -->
    <_>
      <maxWeakCount>4</maxWeakCount>
      <stageThreshold>-1.0170065164566040e+00</stageThreshold>
      <weakClassifiers>
        <_>
          <internalNodes>
            0 -1 64 -1346633865 -167772289 -1292113296 -1133596690
            -1079263302 -100675593 -10518543 -1132494859</internalNodes>
          <leafValues>
            -4.2474916577339172e-01 7.7049177885055542e-01</leafValues></_>
        <_>
          <internalNodes>
            0 -1 17 704328571 1073692479 1929379803 494615419
            -1342214273 -1526743169 229793791 -668596855</internalNodes>
          <leafValues>
            -5.4235750436782837e-01 6.6448271274566650e-01</leafValues></_>
        <_>
          <internalNodes>
            0 -1 11 -319291393 -856691203 -1074790657 -285343747
            1761574783 -822099971 1845489663 -805376265</internalNodes>
          <leafValues>
            -5.3984481096267700e-01 6.8938827514648438e-01</leafValues></_>
        <_>
          <internalNodes>
            0 -1 18 -44703762 -1835789948 896564584 -418295573
            -1668273938 -1410461534 -1696482565 -3408390</internalNodes>
          <leafValues>
            -8.0837190151214600e-01 4.8994499444961548e-01</leafValues></_></weakClassifiers></_>
    <!-- stage 13 -->
    <_>
      <maxWeakCount>4</maxWeakCount>
      <stageThreshold>-1.9846411049365997e-01</stageThreshold>
      <weakClassifiers>
        <_>
          <internalNodes>
            0 -1 42 1096667511 -648871929 1396726101 -107965161
            -2097109569 -1733214031 773196991 1001914368</internalNodes>
          <leafValues>
            -7.1479499340057373e-01 6.3312250375747681e-01</leafValues></_>
        <_>
          <internalNodes>
            0 -1 1 -135014569 -161054849 -98525 -30343373 -1107853443
            -571080833 -9044106 -797642192</internalNodes>
          <leafValues>
            -5.9759777784347534e-01 6.1771869659423828e-01</leafValues></_>
        <_>
          <internalNodes>
            0 -1 34 537386948 -746622617 1880322832 -75007341 814996988
            -524385008 554996221 2097091203</internalNodes>
          <leafValues>
            -7.7747392654418945e-01 5.1006656885147095e-01</leafValues></_>
        <_>
          <internalNodes>
            0 -1 60 -553648574 -228069646 -520100210 1451229183
            -10621164 343373652 -134753034 -252708865</internalNodes>
          <leafValues>
            -5.9879004955291748e-01 6.7608612775802612e-01</leafValues></_></weakClassifiers></_>
    <!-- stage 14 -->
    <_>
      <maxWeakCount>5</maxWeakCount>
      <stageThreshold>-6.4311063289642334e-01</stageThreshold>
      <weakClassifiers>
        <_>
          <internalNodes>
            0 -1 4 598409987 -272662593 -570425361 -671125713 335482880
            -268468612 1249877771 -809549889</internalNodes>
          <leafValues>
            -5.4269975423812866e-01 6.9504445791244507e-01</leafValues></_>
        <_>
          <internalNodes>
            0 -1 14 -292160531 -319565097 622273555 -422653167
            -267675261 -602388409 -651679490 -269491569</internalNodes>
          <leafValues>
            -5.7850849628448486e-01 6.3620603084564209e-01</leafValues></_>
        <_>
          <internalNodes>
            0 -1 24 956564703 1574511383 1170571735 -69401889
            -1222996801 -242644351 147765963 -9690084</internalNodes>
          <leafValues>
            -6.1083328723907471e-01 6.0220003128051758e-01</leafValues></_>
        <_>
          <internalNodes>
            0 -1 32 -721301281 -1114648191 -786621544 -225357797
            -2113686710 -1996320344 -1971053860 -533493110</internalNodes>
          <leafValues>
            -6.3428705930709839e-01 6.0475188493728638e-01</leafValues></_>
        <_>
          <internalNodes>
            0 -1 57 487849209 -15396579 -1182787204 -599746536
            1267326941 981534721 251661560 969346200</internalNodes>
          <leafValues>
            -7.0453000068664551e-01 5.5278706550598145e-01</leafValues></_></weakClassifiers></_>
    <!-- stage 15 -->
    <_>
      <maxWeakCount>4</maxWeakCount>
      <stageThreshold>-3.0412530899047852e-01</stageThreshold>
      <weakClassifiers>
        <_>
          <internalNodes>
            0 -1 70 -669133133 1435570389 -1122531876 -1642216097
            8891383 -1154578168 1074631684 822351872</internalNodes>
          <leafValues>
            -6.8771928548812866e-01 6.3121384382247925e-01</leafValues></_>
        <_>
          <internalNodes>
            0 -1 41 159075071 425607388 -1820110349 488147003 176720103
            -324435837 -2113672393 -1735224222</internalNodes>
          <leafValues>
            -6.2444114685058594e-01 5.9886729717254639e-01</leafValues></_>
        <_>
          <internalNodes>
            0 -1 68 -72623356 -417363898 -2104831728 -779943505
            -265781090 -527691536 -1307910068 -767039377</internalNodes>
          <leafValues>
            -7.4612545967102051e-01 5.1954001188278198e-01</leafValues></_>
        <_>
          <internalNodes>
            0 -1 52 -1055796253 -573239279 17367144 -863367165 134777081
            -191758096 -1425947203 90538143</internalNodes>
          <leafValues>
            -7.1535676717758179e-01 5.3085213899612427e-01</leafValues></_></weakClassifiers></_>
    <!-- stage 16 -->
    <_>
      <maxWeakCount>4</maxWeakCount>
      <stageThreshold>-2.1961468458175659e-01</stageThreshold>
      <weakClassifiers>
        <_>
          <internalNodes>
            0 -1 55 -194904199 1567752181 1798506282 590425003
            -680329221 487618544 2134079247 523974591</internalNodes>
          <leafValues>
            -5.0132626295089722e-01 6.9728332757949829e-01</leafValues></_>
        <_>
          <internalNodes>
            0 -1 63 1569964339 -716140385 1493368848 -1609924334
            -1140612949 -240480120 -1199366703 -1090649967</internalNodes>
          <leafValues>
            -6.3596898317337036e-01 5.8378171920776367e-01</leafValues></_>
        <_>
          <internalNodes>
            0 -1 19 -1598818369 -531634169 -1769921194 -1938659215
            -503147553 -74808788 -670918517 -20974133</internalNodes>
          <leafValues>
            -6.5911406278610229e-01 5.4656440019607544e-01</leafValues></_>
        <_>
          <internalNodes>
            0 -1 61 -1852829360 -552271859 822500627 496308245
            -1414882886 -1380399743 914371499 453646906</internalNodes>
          <leafValues>
            -8.2749342918395996e-01 4.3351116776466370e-01</leafValues></_></weakClassifiers></_>
    <!-- stage 17 -->
    <_>
      <maxWeakCount>4</maxWeakCount>
      <stageThreshold>-3.1890749931335449e-01</stageThreshold>
      <weakClassifiers>
        <_>
          <internalNodes>
            0 -1 69 -283117312 1309903171 1208205604 -240268641
            -2112453787 1124237330 -2004300740 1164115317</internalNodes>
          <leafValues>
            -8.2532751560211182e-01 5.8523344993591309e-01</leafValues></_>
        <_>
          <internalNodes>
            0 -1 20 894517009 -6024799 587674015 -1651441382 -1535001479
            -132049150 1034095865 -1110570961</internalNodes>
          <leafValues>
            -6.1120206117630005e-01 5.9735721349716187e-01</leafValues></_>
        <_>
          <internalNodes>
            0 -1 25 -771493635 -95628809 1360108830 -1877912237
            -620715454 44042368 -1140772552 -1506311286</internalNodes>
          <leafValues>
            -7.2719526290893555e-01 5.0512903928756714e-01</leafValues></_>
        <_>
          <internalNodes>
            0 -1 22 -1103172355 -33734785 -1078054914 434859834
            -281088065 -67 2134794141 -1079374691</internalNodes>
          <leafValues>
            -5.9606629610061646e-01 6.3799798488616943e-01</leafValues></_></weakClassifiers></_>
    <!-- stage 18 -->
    <_>
      <maxWeakCount>5</maxWeakCount>
      <stageThreshold>-6.6225332021713257e-01</stageThreshold>
      <weakClassifiers>
        <_>
          <internalNodes>
            0 -1 12 -285212673 -321978625 -2 -432340993 -8388609
            1643446269 -16777217 -370475009</internalNodes>
          <leafValues>
            -6.0260587930679321e-01 6.3463819026947021e-01</leafValues></_>
        <_>
          <internalNodes>
            0 -1 38 -212676528 -715997104 268456027 1355338522
            -1719555892 -24993741 -1727487798 -221785088</internalNodes>
          <leafValues>
            -6.3141191005706787e-01 5.4358083009719849e-01</leafValues></_>
        <_>
          <internalNodes>
            0 -1 13 244785655 -1282014811 1495356059 -1645539148
            -1174097686 -1077870392 -1156943462 -1082119774</internalNodes>
          <leafValues>
            -5.6488585472106934e-01 5.9552425146102905e-01</leafValues></_>
        <_>
          <internalNodes>
            0 -1 40 -1734346738 -827198457 -1823213312 1218912562
            -2092518749 -125239296 -1924736505 -1378934253</internalNodes>
          <leafValues>
            -6.4106106758117676e-01 5.8517098426818848e-01</leafValues></_>
        <_>
          <internalNodes>
            0 -1 65 -1715939877 2098265563 -268566533 406607357
            -1104007470 -1090525991 314107864 -641350152</internalNodes>
          <leafValues>
            -5.5769145488739014e-01 6.7979127168655396e-01</leafValues></_></weakClassifiers></_>
    <!-- stage 19 -->
    <_>
      <maxWeakCount>4</maxWeakCount>
      <stageThreshold>-2.6368615031242371e-01</stageThreshold>
      <weakClassifiers>
        <_>
          <internalNodes>
            0 -1 50 -780019458 -535986141 1091641360 -1474456624
            -1567513869 -242670949 -2012660854 1364265147</internalNodes>
          <leafValues>
            -6.7730498313903809e-01 6.2327188253402710e-01</leafValues></_>
        <_>
          <internalNodes>
            0 -1 58 1179640422 -771108069 -1869487521 -718287459
            -684212501 268703872 315285963 -1280576533</internalNodes>
          <leafValues>
            -6.0644435882568359e-01 5.9331470727920532e-01</leafValues></_>
        <_>
          <internalNodes>
            0 -1 48 155256179 1415664215 1930496567 1812285529 82623
            2040021225 -1979143713 -885301125</internalNodes>
          <leafValues>
            -6.5600806474685669e-01 5.2269840240478516e-01</leafValues></_>
        <_>
          <internalNodes>
            0 -1 44 -1257155823 2031124744 286339346 1351077906
            1074348185 965279754 -1919690696 -616185728</internalNodes>
          <leafValues>
            -7.0239430665969849e-01 5.2736479043960571e-01</leafValues></_></weakClassifiers></_></stages>
  <features>
    <_>
      <rect>
        0 0 4 8</rect></_>
    <_>
      <rect>
        0 3 2 7</rect></_>
    <_>
      <rect>
        0 6 14 5</rect></_>
    <_>
      <rect>
        1 0 11 2</rect></_>
    <_>
      <rect>
        1 27 13 1</rect></_>
    <_>
      <rect>
        2 3 26 6</rect></_>
    <_>
      <rect>
        2 8 11 7</rect></_>
    <_>
      <rect>
        2 10 26 6</rect></_>
    <_>
      <rect>
        2 13 14 5</rect></_>
    <_>
      <rect>
        2 15 26 3</rect></_>
    <_>
      <rect>
        3 5 5 6</rect></_>
    <_>
      <rect>
        3 6 4 4</rect></_>
    <_>
      <rect>
        3 10 5 5</rect></_>
    <_>
      <rect>
        4 0 4 1</rect></_>
    <_>
      <rect>
        4 11 4 3</rect></_>
    <_>
      <rect>
        4 11 5 5</rect></_>
    <_>
      <rect>
        6 8 4 5</rect></_>
    <_>
      <rect>
        6 24 15 2</rect></_>
    <_>
      <rect>
        7 9 24 3</rect></_>
    <_>
      <rect>
        7 12 4 2</rect></_>
    <_>
      <rect>
        7 24 6 2</rect></_>
    <_>
      <rect>
        8 0 3 1</rect></_>
    <_>
      <rect>
        8 1 8 2</rect></_>
    <_>
      <rect>
        8 5 4 6</rect></_>
    <_>
      <rect>
        9 1 2 1</rect></_>
    <_>
      <rect>
        10 0 14 1</rect></_>
    <_>
      <rect>
        11 0 4 1</rect></_>
    <_>
      <rect>
        14 3 10 9</rect></_>
    <_>
      <rect>
        14 26 7 1</rect></_>
    <_>
      <rect>
        14 27 10 1</rect></_>
    <_>
      <rect>
        15 2 3 1</rect></_>
    <_>
      <rect>
        15 18 17 4</rect></_>
    <_>
      <rect>
        16 0 11 1</rect></_>
    <_>
      <rect>
        17 26 5 1</rect></_>
    <_>
      <rect>
        19 7 8 3</rect></_>
    <_>
      <rect>
        19 11 8 2</rect></_>
    <_>
      <rect>
        20 1 6 1</rect></_>
    <_>
      <rect>
        21 26 3 1</rect></_>
    <_>
      <rect>
        22 1 8 1</rect></_>
    <_>
      <rect>
        22 3 16 3</rect></_>
    <_>
      <rect>
        23 9 5 2</rect></_>
    <_>
      <rect>
        25 0 4 1</rect></_>
    <_>
      <rect>
        25 20 14 3</rect></_>
    <_>
      <rect>
        26 4 9 8</rect></_>
    <_>
      <rect>
        27 0 13 2</rect></_>
    <_>
      <rect>
        27 12 5 3</rect></_>
    <_>
      <rect>
        28 4 17 5</rect></_>
    <_>
      <rect>
        28 10 8 3</rect></_>
    <_>
      <rect>
        28 27 9 1</rect></_>
    <_>
      <rect>
        29 0 8 2</rect></_>
    <_>
      <rect>
        29 0 13 1</rect></_>
    <_>
      <rect>
        29 17 7 2</rect></_>
    <_>
      <rect>
        30 0 15 1</rect></_>
    <_>
      <rect>
        30 11 5 5</rect></_>
    <_>
      <rect>
        32 0 6 1</rect></_>
    <_>
      <rect>
        33 15 7 2</rect></_>
    <_>
      <rect>
        34 0 8 2</rect></_>
    <_>
      <rect>
        35 0 13 3</rect></_>
    <_>
      <rect>
        38 7 4 4</rect></_>
    <_>
      <rect>
        41 5 13 8</rect></_>
    <_>
      <rect>
        43 12 2 2</rect></_>
    <_>
      <rect>
        45 5 7 2</rect></_>
    <_>
      <rect>
        47 21 11 3</rect></_>
    <_>
      <rect>
        48 0 9 1</rect></_>
    <_>
      <rect>
        48 0 10 1</rect></_>
    <_>
      <rect>
        51 3 6 1</rect></_>
    <_>
      <rect>
        52 3 9 5</rect></_>
    <_>
      <rect>
        52 4 4 1</rect></_>
    <_>
      <rect>
        54 4 8 7</rect></_>
    <_>
      <rect>
        56 6 8 6</rect></_>
    <_>
      <rect>
        63 0 5 1</rect></_>
    <_>
      <rect>
        65 8 5 4</rect></_></features></cascade>
</opencv_storage>
